{"weights": [0.004624670598359128, 4.177974013383302e-05, 3.3767068936924864e-05, 0.0016708053818658723, -7937768684.024624, 0.02402206366483545, 0.02720803950108127, -0.0014201409397498143, 10496250300.37844, -0.015450718004760616, 287439047824.32404, 11472755210.58241, -27715281552.154533, 5830032791.801872, 78282076997.60999, -71258829138.57341, -17532011095.69809, 12361141488.07549, 55414657358.805725, 1959238106.603489, -3.0870698854877906e-05, -2.8893791569421773e-08, 6.650522773884635e-11, -1.466464784719382e-08, -4.999380952687637e-10, -1.861165857206359e-10, 1.6989726730551825e-06, -2.1812214814335972e-08, -2.4526487916713273e-08, -9.55432144278137e-07, -1.6682627882966842e-05, 2.7477831313644424e-06, -4.822174711533836e-07, 5.15170381992012e-05, -0.0012122459736873638, -3.207547625497499e-05, 2.6184807461040374e-07, -8.01368671700265e-07, -1.2249149079646423e-05, 0.0005619685007030029, -0.000222319029079916, -4.566091833439407e-05, -7.041120821187296e-07, -5.875718642284104e-07, -1.995678824053958e-05, 5.109176967927469e-05, -0.0003664032253452871, 6.566945112039458e-05, -2.4387893363461036e-05, 7.225119838416309e-07, -3.243274378108371e-08, 5.1997997606235125e-06, 0.0007644651502504243, -0.0008602721951722088, 0.00020661996899073022, 0.0016834098093486873, -7.610715416314558e-05, -6.184180581353837e-07, 8.236845945128836e-07, 2.655369423027862e-05, -0.0014098751237627723, 0.0011866877384647616, 0.0005146130104796798, 0.0015526719302192517, 0.0014474788242184165, -7.46184527483016e-05, 7.269901679180537e-07, 1.0058373647469598e-06, 4.7670149527989324e-05, 0.000200839897065716, -8.835928150050928e-05, 0.0005035211883211714, 0.0024643124599427915, 0.0019823442075086748, -0.0021367922156889704, -1297640061.1161454, -23856296.986679275, -333209692268.37573, -177169887.13023704, 203917801866.51373, -424288648736.8653, -240310044642.5746, 280900989153.659, -44338470143.85313, 294014326130.3113, -12615363282.19904, 0.0007065565232606031, -2.3460068742834014e-06, -1.0398367757819652e-06, 0.0010289831714957105, 0.012924048447633651, 0.0068652929221936785, -0.00025974202749794677, -0.0015946931679099398, -0.0026241985010959814, 0.00899607722604749, -25795570632.574333, -11472755210.606428, 0.0021648569610723456, -9.241946555079458e-06, -7.935623913237243e-07, -0.0002489398642402483, 7937768684.0314665, -0.004347731846706112, 0.0005925368092946057, -0.008682394721372914, 0.0005616536559642209, -0.00521027847678398, -10479138040.515144, -0.05163906498302455, 27715281552.23158, -0.00014618812770979695, -3.3941977151408814e-06, -1.6777180606862334e-06, -0.0001354586948130055, 0.002190833211078337, -0.0030327596450402607, 0.0001480342827508578, 0.0021145000447647614, -10496250300.385317, -4.910531867928486e-05, 1968393874.7925792, 0.035451259843012374, 0.036454374787588374, -5830032791.781202, 3.912627044479942e-05, 1.0792183714748749e-06, 1.1562755243835316e-06, -4.9704701365448816e-05, -0.00032644628497577316, 0.0008152669807130242, -0.0017686020056211856, 0.000745825043153431, 0.003010621742921739, 0.007211547952407187, 0.006385994720027684, -0.010054300582386053, 0.02798657018563092, 1.408833138752876e-06, -78282076997.5963, -7.144442340555288e-05, -2.9537437215447784e-06, -9.091192339753013e-07, -9.739783930713213e-05, -0.0027438066972053686, -0.00021255196683934172, -0.0019515442037246022, -6.876263752744766e-06, 0.0016693293485356838, 0.00022894288339044908, 0.008511535058128659, -0.0006259827273937622, 0.019829448450306222, 0.0027509673613728275, 326033158.35064954, 71258829138.63943, -0.00020231874532272926, -3.1562438338485754e-06, -2.9183024990014524e-07, -2.807821502016615e-05, -0.0003727536757517772, 0.00042943023732028946, -0.000366761910702625, 0.001103314300401809, 0.0007023251723182373, 0.0008582763100242518, -0.025467262800301094, -0.0010046166553201797, 0.011522290535111581, -0.007770285247780208, 684838.8810816604, -576795.2508695883, 17532011095.734093, -0.000846293714740676, 2.018979107551391e-06, 7.805018600210112e-07, 8.89918001384539e-05, -0.0025558027383777455, -0.001598984899498342, -0.0005475538955861496, 0.0014523045852652694, 0.004210954264578427, 0.002241719131514268, -0.006704183140744813, 0.023856651529602108, 0.03511499472723479, -0.01904850235144052, 0.3701057434082031, 0.01904296875, 0.0, -12361141488.086172, -0.00036323380336625397, -2.4640360933306177e-06, -1.303928985374826e-07, -3.9926270205965225e-05, -0.002217572069801425, -0.0017944718730276677, -0.001239315209822602, -0.0004886855581255784, 0.003691549506552216, -0.0008735692845660576, -0.04027914245635696, 0.0026147672578175577, 0.02077491190285086, -0.012001012063488909, 0.0, 0.0, 0.0, 0.0, -55414657358.763725, -0.0002702329548745646, -5.751493961878291e-07, 7.633574801405949e-07, -2.52930518120442e-05, -0.001480280736844484, -0.00028736763493060003, -0.0020090765310048484, 0.000766521576871121, 0.006557775463539282, 0.0031871995162090325, -0.013842474104100852, 0.0007347498373183424, 0.017437606201535925, -0.011280741041570945, 0.0, 0.0, 0.0, 0.0, 0.0, -1959238106.580161], "intercept": -0.7255482525738309}