{"weights": [0.006209029147053093, 2.6286198126048054e-05, 2.8496309917378107e-05, 0.002498618949691053, 0.02559068678058598, 0.02828152931796612, 0.030045339301382583, -0.002686457295663382, 0.02962227392099207, -0.01491733979576113, 546890200867.2157, 182396103117.11566, 150181404781.94592, -144412297202.60275, -572744420897.6925, 376876940205.04016, -3.2869660573396845e-05, 4.398298036108324e-08, 5.486912432449821e-11, -1.0887091111314254e-07, 3.719330234773975e-10, -1.884105764983193e-10, 3.3731859778709663e-06, -1.5888288127782407e-08, -1.1920261002953322e-08, -1.0654553210753538e-06, 0.00019345455946324333, 1.7559883332983093e-06, -7.104289060591747e-07, 2.8245754280988822e-05, -0.001227533403250107, -4.3370053100366294e-05, 2.580450155052808e-07, -6.196511760219269e-07, -1.0142886285692037e-05, 0.0002757185814757722, -0.0003537814756051923, -6.170559817813275e-05, -8.217697418997757e-07, -6.228097863508952e-07, -2.3059575517020475e-05, -0.00017602676892084304, -0.00036861520383825073, 4.550130508341947e-05, -7.33176641765012e-05, 6.796261343249777e-07, -5.040671835096854e-09, -2.980137650483557e-06, -0.00012879465842629664, -0.0006186722839863744, 0.0005944486300394885, 0.002163276858397291, -0.00010655407812646429, -1.7447826149112726e-06, 2.7919868559961218e-08, -2.037369296812605e-05, -4.733132771266108e-05, -1.669880383445393e-05, 0.000620777769899206, 0.0016603547635554974, -0.0015453419528553662, 6.042638207125286e-05, 7.097193367198638e-07, 1.267126061599864e-06, 4.3369390536420203e-05, -0.0003626568007515896, 0.0004902040582552526, 0.000555451293783355, 0.0011664565993742305, 0.0018929066333263874, -0.0015998591727542238, -8.934284153103852e-05, 1.9635211128061524e-06, 7.478999582015112e-07, -4.910805144097982e-05, 0.0010473895910703055, 0.0001604214812163983, -0.0018633969063818923, 2.3866401380909793e-05, 0.0024813366309225367, 0.009295804664681348, -546890200867.1891, -0.00022060984103645232, -2.2661428200760107e-06, -1.3581864263753644e-06, -9.538189812142907e-05, -0.0012233844735176425, -0.00022452091254485806, -0.0020071277726313127, -0.0027937277304008732, 0.0015092018330886158, -0.0019271018358430843, -6972703839.415291, -182396103117.0338, -0.00027725520441926484, -2.1373328730861026e-06, -6.479287346097606e-07, -2.277104143920398e-05, -8.793664696634324e-05, -0.0007713743241872318, -0.00043412634328065814, 0.0012460961510420432, -0.0022163479010085274, 0.00026619288064606215, -144038726.2872436, 8531008.283461833, -150181404781.90173, -0.00095058836364151, 3.3779929787701294e-06, -5.383339131551797e-07, 7.590210260654603e-05, -0.0004816705160788828, -0.0007299442880597469, -0.0014215995550000656, 0.00042921864034953906, -0.0009016396190038514, -0.004545904144446012, 673727.5741318704, 239373.9566381462, 192143.71198421763, 144412297202.6399, -0.0004321678353319442, -1.467936396026751e-06, -7.020159282750928e-07, -4.165289830564748e-05, -0.001352930206168131, -0.003318332209233849, -0.0020172403415294297, -0.001585272304483983, -0.0009542645513429636, -0.005431476738477035, 0.0, 0.0, 0.0, 0.0, 572744420897.7567, -0.0003425684294831297, 7.736303840288958e-07, 1.4143593138535696e-07, -3.0314569523363716e-05, -0.0008851163168760831, -0.00011994475197103305, -0.0026297668413965904, 0.0005456926974908364, 0.003214218936424525, 0.003279407804099357, 0.0, 0.0, 0.0, 0.0, 0.0, -376876940205.0041], "intercept": -0.7000536770733427}