{"weights": [0.004445695582728972, 3.83395552136176e-05, 3.262227593569904e-05, 0.0016373784905394002, 88256677858.95816, 0.023672131068965614, 0.02486236522614674, -0.004935218599713779, -136532812478.95491, -0.015953935901071362, 1224142597155.973, 74796462817.74788, -167869680409.47318, -190257701506.02753, -3.2166526957305716e-05, -2.1736397839531677e-08, 4.6078820990857155e-11, -1.9633555030310815e-08, -4.019622519133197e-10, -1.7990547094488294e-10, 1.927557586133014e-06, -2.0617840147440195e-08, -2.1359648587470514e-08, -8.696975978829744e-07, -9.570914350729936e-06, 2.655134153875107e-06, -4.224945310990153e-07, 5.237285106216528e-05, -0.0011651829067892267, -2.691455504372491e-05, 3.936441445725099e-07, -7.675563916091343e-07, -1.2428741186775563e-05, 0.0004629557944113141, -0.00022337072865211821, -5.964874490552833e-05, -8.130829581587633e-07, -4.83824865607327e-07, -1.8415568628407133e-05, -5.7648766821576093e-05, -0.00027692821652168363, 7.149033879773293e-05, -3.68712239311721e-05, 9.362864856307496e-07, -1.4467059789875017e-08, 8.122033182146896e-06, 0.0005739057578303847, -0.000852108545205199, 0.00033648035662612555, 0.00220647839329132, -8.205842082175291e-05, -8.946588110492288e-07, 1.0718127319407334e-06, 2.849817175909656e-05, -0.0011860033840643811, 0.0011791210929772747, 0.0003191299953808514, 0.0017877305664123794, 0.0019598210859059777, -3.5564854918618553e-06, 8.478859863053834e-07, 9.71164362682201e-07, 5.176374848672167e-05, 0.00040752155960745634, -3.3333875961357175e-05, 0.0006380804118668292, 0.002581880219958771, 0.0037631708428091577, -0.002464553298947426, -1862072250.1828835, -708010694.0538111, -6805946979.580636, -970010009.1118573, 1731510334.1819768, -4283681587.9154596, 5119284343.2302475, 10106128180.886395, 352623585.7128354, 11992305255.789545, 3769276107.3327217, 0.0006692020164065555, -1.939683247123251e-06, -1.0391029460178284e-06, 0.0009375326293814806, 0.012785872164292025, 0.0068208160653375986, -9.519037432326988e-05, -0.00040396016377908077, -0.0002937121471862755, 0.006181392492201071, 467768524488.3514, -74796462817.77692, 0.002110590238057923, -7.68522244197022e-06, -1.2554151700645776e-06, -0.0002243855401773761, -88256677858.9529, -0.005112125300963193, 0.002295164823347766, -0.008059080550311404, 0.0002361202386742938, -0.004152650342642276, 0.0, -0.04756307756259148, 167869680409.55692, -8.74418305204912e-05, -2.4557810704842047e-06, -2.3408175001706963e-06, -0.0001283739667401151, 0.00246744120309158, -0.0024961132638832216, 0.0009648981562435429, 0.0012366788773558919, 136532812478.9442, -0.004779584351450393, 0.0, 0.03775062030993543, 0.029176516120721672, 190257701506.04327], "intercept": -0.6681094021709989}